{
  "id": "model_1762867046712_m6hb035l2",
  "name": "Bird_0_1762867045842",
  "chromosome": {
    "weights": [
      -0.9571866006184366,
      0.8231865229201978,
      0.2728255529045982,
      0.3276154718868105,
      0.8170425627045461,
      -0.29408714628904864,
      0.1324572881986621,
      0.018508979068024622,
      -0.15096175854118088,
      -0.2214990730050761,
      -0.2158948375539087,
      0.053280235419225,
      -0.7458835225152256,
      0.9624362861734299,
      -0.856736233567442,
      0.4257694176358644,
      -0.4395854737883722,
      -0.9169528527235615,
      -0.7655920208350993,
      -0.9558217366867845,
      0.6065823640775387,
      0.413098451578936,
      0.2015618984912364,
      -0.7093584461871445,
      0.38687325779107673,
      -0.9826687364800746,
      0.7961307375998707,
      0.1722127067444985,
      -0.34531852591249135,
      -0.231297575274779,
      0.3877543211337233,
      -0.5180576011003899,
      -0.2527392322959161,
      -0.10413764348102084,
      0.6307153680498188,
      0.3874645415088587,
      0.9031862194846705,
      -0.4901864498302726,
      -0.3531740009152371,
      -0.5021152084805991,
      0.9488088078911405,
      0.29751285990876264,
      -0.76269978170781,
      -0.8727982863664865,
      -0.196279904835307,
      0.596430952659087,
      -0.7666407307498329,
      0.7341263410593903
    ],
    "biases": [
      0.5059900292445338,
      -0.841060629653887,
      -0.9851634898435018,
      -0.0024785007670447,
      -0.28703423864987987,
      -0.5678942020619666,
      -0.8598638792663478,
      -0.022945795496365884,
      0.7624615555670176,
      -0.5617838756899887,
      -0.02040275472885167,
      -0.8514732509255505,
      -0.9580775692734844,
      -0.28671567414233157,
      0.6004303027535163,
      0.12206271583907169
    ],
    "fitness": 20.72156947462135,
    "score": 0,
    "timestamp": "2025-11-11T13:17:26.712Z"
  },
  "hiddenLayerSize": 15
}