{
  "id": "model_1762891829671_j22br6nh5",
  "name": "Bird_131_1762891828074",
  "chromosome": {
    "weights": [
      0.013170090971745884,
      0.24005651021643803,
      -0.019864039815342727,
      -0.955299625414135,
      0.766621726078498,
      0.06397595479544216,
      0.5484378834618231,
      0.13423731975435294,
      0.18769256680380927,
      0.9319066701652379,
      -0.28915913070374755,
      -0.25785501539153943,
      0.07423857756904326,
      0.1259854039430814,
      0.16473203418065774,
      -0.06418505050897429,
      -0.11312363653336197,
      0.033934174210206836,
      0.1631420792867288,
      0.5841410604330757,
      -0.44579924963120976,
      0.01643812802201816,
      -0.3059565118512746,
      -0.42168649010934445,
      0.10896146951080796,
      0.3997784180955286,
      -0.09788405790789671,
      0.09631753352469508,
      -0.2784363826998151,
      0.28874375301886096,
      0.16936724146458415,
      -0.005046181606881484,
      0.11728543039176209,
      0.31915813727880304,
      0.04354568516616997,
      0.219380103077771,
      0.9918762747292267,
      -0.9433748268362971,
      -0.15548630352451875,
      0.3927383516607943,
      -0.671232853422296,
      0.15276835094181976,
      0.8778462831879748,
      -0.24002912516108843,
      0.1473250709644982,
      -0.7047944784191407,
      0.09225007913739192,
      0.500697438743611
    ],
    "biases": [
      0.039709438292730936,
      0.09097685623155824,
      -0.9347948738199534,
      0.10083801139364823,
      -0.018714089470668993,
      -0.29613765763313604,
      0.5653146242401963,
      -0.3605343923754898,
      0.09159333609582454,
      0.9605334952512492,
      -0.22077027466074517,
      -0.9803858137821428,
      -0.7246235106485825,
      -0.09327807115733111,
      -0.9352984773986275,
      -0.571408080531491
    ],
    "fitness": 282.34999999997706,
    "score": 131,
    "timestamp": "2025-11-11T20:10:29.670Z"
  },
  "hiddenLayerSize": 15
}