{
  "id": "model_1762892378928_6dl0ftkvx",
  "name": "Bird_135_1762892377798",
  "chromosome": {
    "weights": [
      0.6641490165334234,
      -0.9194091252441301,
      0.9418314074702923,
      -0.803603024436248,
      0.8645687592387234,
      0.37244597687371095,
      -0.6615491992682436,
      0.7895347078390105,
      0.7344165682898967,
      0.5778412579920627,
      0.49086810549525084,
      -0.5909853643339087,
      0.27703293352238223,
      0.8467970130791709,
      0.972026257412675,
      -0.3554727214637641,
      0.6696203050701848,
      -0.009514660825111099,
      -0.35146439238754024,
      -0.2516044210430588,
      0.38516018564201837,
      -0.8474820904153917,
      0.061028952634248235,
      -0.9549153373443142,
      -0.6738611992688788,
      0.31209539662797625,
      0.7107169463781515,
      0.16542276375734088,
      0.1090422545743408,
      -0.10578044286352584,
      0.7902364632586902,
      0.7923111832570706,
      0.23196393490420752,
      0.7122606520273569,
      0.5084694627756003,
      -0.06582531099762079,
      -0.8540980929869331,
      0.8093644361426606,
      -0.4854090211614879,
      0.3124843221962563,
      0.3383009374667292,
      -0.04118854898827995,
      0.6951190883841816,
      -0.1995670202412514,
      -0.40186406912225014,
      -0.4943999314456864,
      -0.4295569456643056,
      0.505733078168586
    ],
    "biases": [
      0.30383172510093903,
      0.08939996692865648,
      0.885674384368655,
      -0.021351740134016195,
      -0.5663009553046838,
      0.2913878081467238,
      0.2934717677547698,
      -0.34915046460021837,
      0.9937400079508418,
      0.699551246539101,
      -0.8112677779789574,
      0.7812771070992486,
      -0.719348018879739,
      0.6252946214322355,
      0.7691424355985985,
      0.022168683430510372
    ],
    "fitness": 516.2299999997673,
    "score": 135,
    "timestamp": "2025-11-11T20:19:38.928Z"
  },
  "hiddenLayerSize": 15
}